<?xml version="1.0"?>
<opencv_storage>
<opencv_ml_svm>
  <format>3</format>
  <svmType>C_SVC</svmType>
  <kernel>
    <type>LINEAR</type></kernel>
  <C>1.0000000000000000e-002</C>
  <term_criteria><iterations>2000</iterations></term_criteria>
  <var_count>3780</var_count>
  <class_count>2</class_count>
  <class_labels type_id="opencv-matrix">
    <rows>2</rows>
    <cols>1</cols>
    <dt>i</dt>
    <data>
      -1 1</data></class_labels>
  <sv_total>1</sv_total>
  <support_vectors>
    <_>
      1.50496326e-002 3.90562303e-002 3.14202607e-002 7.07079843e-003
      5.99235334e-002 1.21581927e-002 -1.11109531e-003 -1.97622217e-002
      -2.11159531e-002 3.16738188e-002 3.36392261e-002 1.82083398e-002
      -1.22439470e-002 3.68902460e-002 -1.12300105e-002 -4.83501516e-003
      -1.61054563e-002 2.72062495e-002 2.74576014e-003 9.78134107e-003
      1.02430340e-002 2.46214122e-003 6.60531893e-002 2.42689457e-002
      6.02009846e-003 -2.74940711e-002 -1.34493485e-002 3.84152643e-002
      3.08142416e-002 1.89592149e-002 2.02736501e-002 5.90253137e-002
      1.85672916e-003 -1.07515780e-002 -4.88509052e-002 4.96705696e-002
      1.08551290e-002 3.85747920e-003 5.09119360e-003 -7.88392313e-003
      3.64971831e-002 -1.60764568e-002 -3.22254654e-003 2.24573421e-003
      2.10041665e-002 -2.77874339e-002 -3.10212132e-002 -1.13380915e-002
      -6.23384444e-003 9.50696692e-003 -1.72355305e-003 1.41252428e-002
      3.63982171e-002 2.87083127e-002 3.94458771e-002 1.16187735e-002
      1.42568406e-002 -9.89335310e-003 3.51703204e-002 -4.31634951e-003
      -1.15795368e-002 -3.24968994e-002 1.13205612e-003 1.30273858e-002
      2.96430732e-003 -1.71895011e-003 -1.31988311e-002 8.34621675e-003
      1.01295160e-003 1.45719303e-002 2.37293206e-002 4.47481498e-002
      -2.56800056e-002 -3.54157574e-002 -1.05275270e-002 4.60220408e-003
      5.91249485e-003 -5.00843674e-003 -7.71751674e-003 1.24827670e-002
      1.90210287e-002 -1.52721796e-002 -9.08738934e-003 -2.32826658e-002
      2.13676039e-002 7.16481209e-002 -9.23298486e-003 -3.79088633e-002
      -2.06515100e-002 -2.38146124e-004 1.97183434e-002 5.44093922e-003
      1.52177562e-003 -6.70914538e-003 2.84594484e-002 -5.04671596e-003
      1.60980374e-002 1.61162317e-002 2.63675563e-002 1.26567399e-002
      3.13801840e-002 -3.01049743e-002 -1.38640460e-002 4.04003598e-002
      -1.10272709e-002 -4.95144865e-004 -3.89329307e-002 8.92061274e-003
      -1.05081694e-002 4.18290403e-003 -2.05924129e-003 7.72981718e-003
      5.21644130e-002 1.18683398e-004 8.45452677e-003 -1.59570668e-003
      -2.72686854e-002 -3.23131382e-002 -3.04809809e-002 2.49184459e-003
      -3.67920734e-002 2.59916596e-002 -1.64852999e-002 2.37541832e-002
      2.05421429e-002 -2.01231744e-002 3.35856900e-002 5.91235142e-003
      -4.74287048e-002 -1.57403629e-002 4.04853374e-002 1.06196525e-002
      5.23313414e-003 -2.25434755e-003 9.99263953e-003 -1.19082946e-002
      -4.14537527e-002 -5.19193411e-002 -4.45198230e-002 3.57863605e-002
      -8.06375127e-003 1.82219557e-002 -8.34458042e-003 1.42960548e-002
      -9.28349793e-003 1.88683122e-002 2.54056044e-002 -3.40157636e-002
      2.27450561e-002 -2.20778678e-002 2.27639768e-002 1.08352425e-002
      -3.45546892e-003 1.74668375e-002 8.51613190e-003 -5.83695667e-003
      -3.32899988e-002 5.77240251e-003 -2.35686190e-002 2.33640596e-002
      1.04557881e-002 3.67827900e-002 -4.01151786e-003 -3.92039903e-002
      -2.87790801e-002 -2.95203235e-002 5.23205400e-002 -6.13639364e-003
      2.79678404e-002 -3.05361371e-003 3.78994942e-002 6.65823463e-004
      -6.99574277e-002 -4.16211933e-002 -2.23052762e-002 2.72731818e-002
      -2.61573144e-003 1.46231093e-002 4.86738933e-003 4.12158668e-002
      9.51309875e-003 -1.22141773e-002 -9.04603396e-003 1.42308539e-002
      3.85803394e-002 2.83546571e-004 1.50529481e-002 1.58613976e-002
      4.58742641e-002 -3.65887862e-003 -6.60846531e-002 -2.73050331e-002
      2.14644545e-003 6.44984543e-002 1.73907150e-002 1.02521684e-002
      8.16835836e-003 4.22260091e-002 -4.15644748e-003 -7.42512718e-002
      -3.30128260e-002 1.17608616e-002 4.20448668e-002 -1.11664869e-002
      1.34887686e-002 2.65607517e-002 3.88521887e-002 1.20743504e-002
      -3.87618504e-002 -4.09070849e-002 -9.04059783e-003 5.85054420e-002
      1.05402814e-002 4.09823954e-002 7.40167685e-003 4.32123914e-002
      -3.34022976e-002 -6.98090494e-002 -1.09801972e-002
      -6.43872283e-003 7.10612908e-002 2.79507227e-002 1.78405400e-002
      -1.31552303e-002 6.85822591e-003 -1.68011189e-002 -5.88351376e-002
      -2.17561722e-002 5.64678386e-003 1.13203339e-001 3.42693999e-002
      5.52620627e-002 -3.24197523e-002 1.09258145e-002 2.40486767e-002
      -4.41296287e-002 -3.45439352e-002 -1.66665968e-002 6.40937909e-002
      9.93768312e-003 8.69087316e-003 -2.06234381e-002 3.32221277e-002
      2.46199202e-002 -2.80760713e-002 -3.34029980e-002 2.24314705e-002
      1.04845375e-001 -5.88090532e-003 8.24932009e-003 -3.09101511e-002
      2.35228445e-002 4.51831706e-003 -4.53929976e-002 -4.00891788e-002
      9.52721760e-003 7.69137889e-002 7.34868832e-003 2.03942247e-002
      -3.79058011e-002 6.76676771e-003 -2.36058589e-002 -8.28689933e-002
      -7.19510317e-002 1.59745868e-002 7.59750381e-002 4.56999838e-002
      2.02323738e-002 -1.59546323e-002 6.76406035e-003 3.34366746e-002
      -1.31184794e-002 -5.28934710e-002 -6.27021817e-003 6.27597198e-002
      -3.72964181e-002 -2.37457212e-002 -2.33170651e-002 2.94148959e-002
      3.09339818e-002 -2.86513176e-002 -3.08273006e-002 -2.11086944e-002
      3.10921483e-002 -1.33854114e-002 -9.07871348e-004 2.75036413e-002
      1.62649695e-002 -4.11042944e-002 -7.88979381e-002 -4.37607989e-002
      3.97191457e-002 8.63593668e-002 5.22612147e-002 1.04248086e-002
      -3.44895311e-002 -2.55742483e-002 -2.97061056e-002
      -6.43510222e-002 -1.53920520e-002 6.03458360e-002 1.00296646e-001
      6.79830536e-002 1.00612650e-002 -5.41165583e-002 -4.21358012e-002
      3.21553200e-002 -2.18442827e-002 -1.08273299e-002 -3.50122945e-003
      4.72067669e-002 6.68897759e-003 1.98861933e-003 -1.67537816e-002
      2.74005783e-004 5.84806874e-002 1.28498413e-002 1.10102370e-002
      1.66960359e-002 4.24566902e-002 2.82547362e-002 -5.77906799e-003
      -5.15295528e-002 -3.71441431e-003 -1.29004545e-003
      -3.55562270e-002 -3.97513621e-003 3.33947130e-002 8.45897943e-002
      6.35442659e-002 4.37586568e-002 -3.72801684e-002 -4.69379202e-002
      -3.41416569e-003 -2.73309462e-002 6.74520107e-003 1.66417882e-002
      7.45689049e-002 6.67900220e-002 3.86038236e-002 -4.08120677e-002
      -2.17471365e-002 4.52964492e-002 -5.32934023e-003 1.04700364e-002
      -9.71698109e-003 2.62315199e-002 2.11231094e-002 1.45951184e-002
      -5.53114899e-002 2.11068871e-003 1.10188238e-002 -7.42056174e-003
      2.10597776e-002 2.14639977e-002 4.57589142e-002 2.60717925e-002
      -8.20710603e-003 -4.04281393e-002 -1.49167767e-002 9.02793277e-003
      -3.26582491e-002 1.19114164e-002 9.05517396e-003 4.98919412e-002
      2.65475847e-002 -1.50069850e-003 -5.61606549e-002 -2.22320016e-002
      -1.21522890e-002 -1.91088133e-002 2.15437226e-002 2.29289010e-002
      1.06504202e-001 4.03486826e-002 5.51601825e-003 -6.08891547e-002
      -3.52716371e-002 1.24596646e-002 -1.86747201e-002 9.27947089e-003
      2.47994550e-002 2.76205186e-002 8.90315976e-003 -2.37320252e-002
      -4.07658853e-002 -5.29527664e-004 1.42843705e-002 -2.06451938e-002
      1.63721461e-002 3.06022856e-002 6.32137731e-002 2.10415479e-002
      1.56525299e-002 -3.10420208e-002 3.20573784e-002 -6.28021313e-003
      -4.12029214e-002 -1.12251900e-002 6.34934055e-003 6.25244081e-002
      -1.76861659e-002 -2.54827589e-002 -8.57533440e-002
      -4.03537825e-002 6.15036823e-002 1.97219029e-002 2.11295579e-002
      3.84534448e-002 8.45227763e-002 1.70072634e-002 -1.06731225e-002
      -4.88664806e-002 1.95067216e-004 7.77956098e-003 -4.00316678e-002
      -2.59370245e-002 -7.70339323e-003 2.68665869e-002 -1.74381472e-002
      -2.37136651e-002 -5.67163005e-002 4.57050046e-003 3.37045044e-002
      1.07352911e-002 1.33319348e-002 3.87476124e-002 6.77717775e-002
      -1.01357211e-004 -7.82219693e-003 -2.05815975e-002 3.60013247e-002
      4.58692499e-002 3.60196009e-002 9.05590132e-003 1.82259586e-002
      5.49771525e-002 6.72340975e-004 -5.24934269e-002 -6.70608878e-002
      -2.03110836e-002 7.34996870e-002 6.42762706e-002 4.24070731e-002
      6.61919564e-002 1.02618396e-001 1.44401360e-002 -4.72146012e-002
      -4.01323251e-002 -2.32818294e-002 2.69295666e-002 4.61842082e-002
      2.75061261e-002 8.85533448e-003 2.20724642e-002 -2.69784201e-002
      -3.99389751e-002 -4.80926447e-002 8.09382647e-003 4.27870862e-002
      7.12359473e-002 8.47990885e-002 6.66201785e-002 4.36102636e-002
      -2.79234126e-002 -4.72029187e-002 -4.62741368e-002 1.47689423e-002
      1.93289872e-002 2.04350031e-003 2.12795194e-002 5.34278043e-002
      7.79361799e-002 -2.21698973e-002 -6.49176687e-002 -7.04759955e-002
      -5.44230752e-002 4.45235558e-002 2.65601743e-002 4.27228250e-002
      8.67000669e-002 8.65737870e-002 3.53879072e-002 1.42350588e-002
      -8.68165400e-003 -5.71317032e-005 1.11888824e-002 4.49151779e-003
      2.54062079e-002 6.66491687e-002 4.04869169e-002 -4.96450067e-002
      -3.55796479e-002 -6.49918765e-002 -3.30410600e-002 2.57533360e-002
      4.45884652e-002 6.55159801e-002 8.78243074e-002 4.97824773e-002
      1.37170609e-002 5.36889816e-003 -1.97562258e-004 4.24543349e-003
      3.51168588e-002 4.96954133e-004 1.56983733e-002 4.36429158e-002
      7.28970813e-003 -2.78327037e-002 -3.23397554e-002 -3.20434980e-002
      -1.76387187e-002 3.70904319e-002 4.10566619e-003 6.41117916e-002
      9.72402170e-002 6.83509037e-002 1.80677269e-002 -3.31406258e-002
      -6.26086742e-002 2.22234931e-002 2.52689179e-002 -1.44222984e-003
      1.92229040e-002 4.30811904e-002 3.78010300e-004 -3.78398485e-002
      -5.36096320e-002 -1.02569163e-002 3.52018193e-004 5.20117432e-002
      2.58953869e-002 4.36880067e-002 7.03478158e-002 5.46779260e-002
      1.50062116e-002 -2.75560049e-003 3.50572867e-003 3.46954018e-002
      2.90964115e-002 4.48196381e-002 2.05960311e-002 -5.78488084e-003
      3.18857841e-002 4.12553316e-003 1.24148345e-002 -3.03990580e-002
      -1.40286554e-002 4.03339192e-002 7.44073465e-002 1.74067114e-002
      1.35830767e-003 3.04387473e-002 -9.73205455e-003 -2.71747378e-003
      -4.14313562e-002 4.11284342e-003 1.23617742e-002 2.22610943e-002
      2.60791257e-002 1.67621728e-002 3.17491218e-002 -7.51560135e-003
      1.45391673e-002 -3.15130353e-002 -6.34323107e-003 1.47720659e-002
      2.59662494e-002 -2.56655994e-003 7.87900388e-003 2.57646125e-002
      7.08332891e-003 -3.99745349e-003 -2.46550832e-002 -1.03031667e-002
      4.04334627e-002 4.70004641e-002 3.01110130e-002 7.12823123e-003
      2.69021187e-002 -1.19045535e-002 2.30092532e-003 -3.88511792e-002
      -1.23878578e-002 3.03282123e-002 2.98621301e-002 3.49944532e-002
      -3.36001837e-003 1.03843780e-002 -1.75065943e-003 2.89678089e-002
      1.17557989e-002 1.89429224e-002 -5.81709261e-004 2.37073135e-002
      2.03366559e-002 8.86649452e-003 1.20333917e-002 -5.43906586e-003
      -1.02838855e-002 -5.24256378e-002 -7.33225187e-003 8.94717034e-003
      -2.19341815e-002 3.91993783e-002 9.36367922e-003 2.39731818e-002
      -1.92121568e-003 8.17217585e-003 -2.78791636e-002 2.72546969e-002
      1.12700341e-002 6.92733517e-003 1.18291508e-002 1.80401292e-003
      1.06350034e-002 -5.49897552e-004 8.58768728e-003 1.45672429e-002
      2.92478353e-002 -5.14591171e-004 1.46716731e-002 -1.11723002e-002
      -3.48609500e-002 6.86766289e-004 -3.34303342e-002 3.04452749e-003
      1.33012403e-002 4.07995842e-002 7.53359462e-004 -7.39736408e-002
      -4.11360571e-003 1.44586228e-002 2.10641809e-002 1.36626214e-002
      3.39465821e-003 -1.16546359e-002 4.37477417e-002 1.88630745e-002
      -4.67024967e-002 8.99056718e-003 -2.51710396e-002 3.82336527e-002
      -4.99760872e-003 1.26764663e-002 -9.00170952e-003 6.77831322e-002
      3.89057137e-002 8.58413987e-003 -2.01519467e-002 -3.04133650e-002
      7.83238467e-003 -5.22797508e-003 1.35904839e-002 2.92998254e-002
      4.97920997e-002 -1.70322321e-003 -2.94915643e-002 -4.05556038e-002
      -4.95567992e-002 3.68210860e-002 3.67182214e-003 3.01136542e-002
      6.97889691e-003 4.57965359e-002 1.54557694e-002 -1.28740827e-002
      2.42021233e-002 -1.77617334e-002 1.55513892e-002 -2.49948297e-002
      7.54070049e-003 7.25854840e-003 3.70779969e-002 -1.52657488e-002
      -4.18711975e-002 -2.00788416e-002 -3.42284516e-002
      -5.19946404e-003 -3.12246978e-002 -1.66952778e-002
      -1.36291226e-002 2.48492267e-002 4.84329183e-003 -2.39594411e-002
      -2.36901864e-002 -1.23596471e-002 5.07227480e-002 1.78828873e-002
      2.28390452e-002 -2.29625776e-003 3.83808091e-002 -2.69696042e-002
      -6.69956580e-002 -1.69413723e-002 7.85832573e-003 6.02939762e-002
      -2.45247828e-003 3.50607559e-004 -1.92027574e-003 2.48825084e-002
      1.00001628e-002 -3.76732498e-002 -1.62731260e-002 -2.95953290e-003
      3.40099335e-002 1.10595394e-002 3.62021412e-004 1.18702194e-002
      2.97018941e-002 -4.04812489e-003 -3.98227088e-002 -2.21505668e-002
      -1.42938755e-002 4.27369103e-002 1.00259092e-002 2.73933914e-002
      2.64996644e-002 5.54919615e-002 -1.29781086e-002 -4.61585522e-002
      -2.77716406e-002 -4.39349748e-003 5.18875644e-002 2.59597576e-003
      7.10701942e-003 6.98975800e-003 3.53146344e-002 6.72053499e-003
      -3.55749056e-002 -5.05529754e-002 -1.54510038e-002 2.82682888e-002
      6.91221608e-003 1.80755164e-002 1.21350475e-002 5.85376732e-002
      -1.45593425e-002 -6.15802482e-002 -1.92372762e-002
      -2.39902530e-002 4.31704670e-002 5.85788442e-003 1.82354208e-002
      1.04724886e-002 4.42137271e-002 1.42873973e-002 -3.76981124e-002
      -1.71894394e-002 -9.81278531e-003 2.62159538e-002 5.74516272e-003
      -1.17898518e-002 5.79413353e-003 3.68884690e-002 2.86029316e-002
      -2.51763985e-002 -5.03672063e-002 -3.90700251e-002 2.11269110e-002
      -1.54525822e-003 -1.24414377e-002 -2.43783500e-002 6.19719848e-002
      2.78539900e-002 -3.32814478e-003 -2.66378634e-002 -3.57332727e-004
      6.57383129e-002 -1.65974963e-002 -1.01089962e-002 -3.68814580e-002
      2.75381412e-002 6.59014005e-003 -3.88989933e-002 -2.05988847e-002
      1.38418134e-002 2.81689670e-002 -1.00532863e-002 -2.80227493e-002
      -2.85142642e-002 6.97179465e-003 -5.14681684e-003 -4.01779339e-002
      -3.12726386e-002 9.26623121e-003 6.66047856e-002 -2.47530136e-002
      -9.49123967e-003 -5.06052710e-002 -1.52907968e-002 4.52086367e-002
      1.74542312e-002 -2.93023828e-002 -2.27906182e-002 1.65986903e-002
      -6.34641349e-002 -3.89780067e-002 -3.07678692e-002 2.98745316e-002
      4.87735644e-002 -2.70422664e-003 -6.55542361e-003 -2.25088578e-002
      1.72216780e-002 -2.39983648e-002 -4.29627411e-002 7.12134689e-003
      4.77801822e-002 5.10087647e-002 -2.18056254e-002 -4.31193523e-002
      -4.19602916e-002 -5.11830207e-004 -5.94841726e-002
      -2.87620500e-002 -2.64664534e-002 3.95100079e-002 5.46712764e-002
      5.53429592e-003 -1.89043917e-002 -2.55080387e-002 8.59352108e-003
      -2.64890138e-002 -3.15005630e-002 -1.16943941e-002 4.67613786e-002
      3.45339850e-002 6.48725405e-003 -5.51494909e-003 4.54995316e-003
      2.84963995e-002 -8.75522848e-003 -3.17318998e-002 -3.52537930e-002
      1.11121060e-002 7.07559884e-002 4.41297777e-002 -1.56124206e-002
      -3.78841232e-003 2.98223388e-003 -1.58646721e-002 -2.85028778e-002
      -4.01002727e-002 2.49575619e-002 3.39768939e-002 8.37196782e-003
      -9.14319512e-003 1.56007595e-002 5.91860674e-002 1.14885978e-002
      -1.53302215e-002 -4.61766683e-002 7.23924313e-004 6.34146854e-002
      3.87338214e-002 7.46529736e-003 7.55234109e-003 3.16949859e-002
      -3.30741517e-004 -3.54581922e-002 -2.25140397e-002 4.36476730e-002
      5.52007183e-002 3.98110114e-002 -7.56047061e-003 -2.36339066e-002
      1.49683952e-002 -1.38593558e-002 -2.45283637e-002 -5.34972884e-002
      7.01712631e-003 2.49598175e-002 4.12683152e-002 1.54271610e-002
      3.58996764e-002 6.50193766e-002 -1.32096363e-002 -6.22154437e-002
      -7.27655441e-002 -1.85312331e-002 7.19950721e-002 4.11451161e-002
      1.02773812e-002 -1.33679025e-002 5.00060879e-002 -2.12131757e-002
      -2.69130524e-002 -2.83037610e-002 1.93052646e-002 4.49097380e-002
      5.30967712e-002 3.51925800e-003 1.74674187e-002 7.61569068e-002
      -1.66740455e-002 -5.02379537e-002 -7.01533109e-002 5.94795495e-003
      1.34235881e-002 8.63872282e-003 5.41716488e-003 3.82318981e-002
      4.49644849e-002 -2.30617393e-002 -6.75736368e-002 -6.48017526e-002
      -1.03843892e-002 3.79222408e-002 -1.16865868e-002 2.46860590e-002
      4.85488176e-002 6.33759201e-002 -6.01815898e-003 -2.61398982e-002
      -1.78214628e-002 5.59212454e-003 4.85840812e-002 2.82153748e-002
      1.76705476e-002 2.83169542e-002 5.98002151e-002 -1.99684817e-002
      -4.82986458e-002 -7.12004602e-002 9.73589346e-003 6.98111877e-002
      2.94674169e-002 5.61751649e-002 5.51513992e-002 5.84548451e-002
      -2.61007175e-002 -1.34059759e-002 -1.55017385e-002 1.80459823e-002
      1.15871308e-002 -2.06420198e-002 -2.94197584e-003 1.14556635e-002
      3.55941281e-002 -2.74710804e-002 -4.35497537e-002 -3.37191708e-002
      5.84752625e-003 -4.12795786e-003 -5.42832166e-003 7.81504810e-003
      3.64695899e-002 7.15602934e-002 -1.02159930e-002 -1.52900610e-002
      -1.14442883e-002 2.47162357e-002 2.91217882e-002 2.75638476e-002
      2.58455910e-002 2.31840033e-002 3.43296044e-002 -3.73777859e-002
      -3.54275964e-002 -2.02581640e-002 -1.44106140e-002 4.55311947e-002
      5.16852066e-002 5.45721725e-002 4.96361591e-002 6.38263896e-002
      -8.10765312e-004 -7.84213748e-003 -2.95339916e-002 1.86221898e-002
      2.41132351e-004 7.75785884e-003 -6.33401622e-004 3.62144504e-003
      2.37444285e-002 -5.40161952e-002 -5.35116084e-002 -2.76548360e-002
      7.11208116e-003 5.40665984e-002 4.54860330e-002 4.20267694e-002
      4.95137982e-002 2.58378498e-002 -5.53325936e-002 -2.41264701e-002
      -3.52331460e-003 2.33405214e-002 3.45112123e-002 4.06767614e-002
      2.63819974e-002 3.23988125e-002 3.91822718e-002 -6.08294345e-002
      -2.51665916e-002 -4.27190736e-002 3.09302043e-002 7.17676878e-002
      4.62612361e-002 2.84618419e-002 3.28207500e-002 4.03572470e-002
      -1.44853247e-002 -1.42310851e-003 -1.17791668e-002 5.29229306e-002
      2.18780953e-002 8.13207030e-003 -9.58346669e-003 2.00457964e-002
      -1.21915911e-003 -5.80119863e-002 -3.68243195e-002
      -3.63236070e-002 -2.15358008e-002 5.25709838e-002 2.96153892e-002
      3.54643911e-002 3.88312899e-002 4.05093394e-002 -1.68853588e-002
      -9.32914298e-003 5.81524288e-003 3.24245505e-002 7.39427432e-002
      1.78614408e-002 -2.92566922e-002 -1.57618765e-002 -2.11735182e-002
      -4.09910083e-002 -3.82763110e-002 -2.20881086e-002 3.10730450e-002
      9.43128392e-002 2.52516940e-002 -1.00560598e-002 -2.53255963e-002
      1.30215548e-002 -7.03579886e-003 -2.18890235e-002 1.93857364e-002
      7.75803924e-002 5.72659150e-002 -1.39119644e-002 -3.82260908e-003
      -2.31820028e-002 -3.38557810e-002 -5.50332777e-002
      -6.22962862e-002 -2.42774058e-002 1.23307584e-002 6.95049167e-002
      1.62033215e-002 7.25943735e-003 2.09233966e-002 2.95778103e-002
      9.65221040e-003 -8.67735187e-004 1.60771713e-003 4.71964031e-002
      7.09263161e-002 -3.05702929e-006 -2.35177130e-002 -7.99258575e-002
      -3.73892114e-002 -4.78656106e-002 -5.52940555e-002
      -2.37567518e-002 3.61164771e-002 7.79839680e-002 4.65485901e-002
      1.38312532e-002 -2.15115342e-002 5.11363707e-003 -3.99645641e-002
      -1.74652636e-002 -3.25514637e-002 6.64930716e-002 1.20641468e-002
      -2.98137590e-003 2.83710286e-002 5.60374372e-003 2.57061757e-002
      1.50115220e-002 4.70307050e-003 -1.21441856e-002 1.82637423e-002
      1.90622974e-002 9.53491684e-003 -3.64390761e-003 -5.91836683e-003
      2.51269881e-002 8.22272431e-003 -2.50430126e-002 -4.54498641e-003
      5.82315922e-002 1.01607302e-002 5.19809779e-003 2.88660005e-002
      1.82440840e-002 3.24241519e-002 6.54226914e-003 -6.13214495e-003
      -1.11928554e-002 2.78091747e-002 5.17602637e-002 4.34491085e-003
      -4.39178851e-003 1.28103271e-002 7.76772294e-003 -7.88323954e-003
      -5.42596774e-003 6.13410445e-003 7.31206238e-002 1.09694982e-002
      1.15723880e-002 9.76628531e-003 1.01379352e-002 3.61560136e-002
      2.98605370e-003 -1.16808265e-002 -2.04592999e-002 5.74474744e-002
      1.55973053e-002 -1.83474794e-002 8.44577048e-003 1.79789774e-002
      2.27097124e-002 1.63659900e-002 5.27315482e-004 -2.44685374e-002
      5.59555665e-002 5.18160760e-002 -5.79916453e-003 1.96649088e-003
      4.53127036e-003 2.55976543e-002 5.70813194e-003 8.23940430e-003
      1.06080249e-002 6.23445697e-002 4.79744226e-002 1.14282062e-002
      2.29376648e-002 1.56176346e-003 -5.53748570e-003 2.05151029e-002
      1.05000874e-002 5.78008033e-003 5.41449934e-002 1.66593399e-002
      -1.56147704e-002 6.43723411e-003 1.86850112e-002 2.96057831e-003
      7.83169735e-003 -9.53337364e-003 -3.21271569e-002 3.29816751e-002
      7.19310902e-003 -2.06226297e-003 3.25176865e-002 -1.50878904e-002
      3.34484689e-002 1.28299082e-002 1.63351577e-002 4.31369431e-003
      3.59230228e-002 3.14701647e-002 3.25710215e-002 8.12733080e-003
      1.84636586e-003 -1.18883811e-002 3.62809841e-003 -1.14233503e-002
      -8.24113376e-003 2.76632831e-002 3.30172330e-002 2.73539554e-002
      2.24406831e-002 7.28285266e-003 3.06256097e-002 9.42710135e-003
      1.34408334e-002 1.85831841e-002 5.05190603e-002 -3.05401231e-003
      1.01952339e-002 3.00158747e-002 -5.83875179e-003 2.31365934e-002
      5.99244982e-003 -5.68164093e-003 5.87509666e-003 1.02495663e-002
      -8.33183341e-003 1.31592911e-003 -1.22552421e-002 -2.61587147e-002
      -2.58481741e-004 -2.66346615e-002 -3.78596112e-002 3.91413411e-003
      3.37937251e-002 2.64960751e-002 -1.21136510e-003 2.41947006e-002
      2.55822530e-003 2.66605448e-002 1.98016204e-002 2.86405999e-002
      5.65221440e-003 5.46861812e-002 1.78483967e-002 -7.14630121e-003
      -1.39427045e-003 -2.47362945e-002 -9.59597353e-004
      -6.41442370e-003 1.37940366e-002 3.79125215e-002 3.54446061e-002
      3.04871099e-003 -5.94506040e-003 -1.61155853e-002 -1.25902258e-002
      2.31598672e-002 1.93999149e-004 -1.14638619e-002 3.13805081e-002
      2.51010973e-002 2.58012768e-003 -1.58921571e-003 5.19286084e-004
      -2.86821835e-002 5.45998802e-003 1.92772225e-002 1.60507075e-002
      2.16783267e-002 3.48120034e-002 5.37084043e-003 -2.14712471e-002
      -6.03774376e-003 -2.37167254e-002 5.76237636e-003 1.76365778e-003
      1.59342252e-002 4.98886108e-002 3.73781137e-002 1.56074464e-002
      -3.13170953e-003 -5.82817895e-003 -4.86363396e-002
      -1.27576357e-002 6.09638542e-003 1.89457666e-002 2.81024240e-002
      3.54861431e-002 -6.91510562e-004 -7.66057335e-003 1.15890913e-002
      -8.84570647e-003 3.67623358e-003 1.97973624e-002 1.94264594e-002
      1.00094965e-002 6.12832140e-003 6.90222252e-004 -9.33246780e-003
      3.50693762e-002 3.37755494e-002 5.59326969e-002 1.46579063e-002
      -1.88514125e-002 -2.18958817e-002 9.78466216e-003 8.20189808e-003
      5.73695311e-003 3.71941715e-003 -1.58419851e-002 1.92437391e-003
      1.17872823e-002 7.46378768e-003 8.01721937e-004 2.84053162e-002
      2.06790585e-002 1.85428464e-004 1.26589490e-002 8.48447066e-003
      5.10229692e-002 5.95213287e-003 -2.82108933e-002 -1.77610293e-002
      1.88114997e-002 6.22608187e-003 -8.28758813e-003 1.30056404e-002
      2.89042071e-002 5.17276414e-002 -1.85090266e-002 -3.56245153e-002
      -2.97536831e-002 1.61067415e-002 1.68762617e-002 -3.03878263e-002
      -1.00673903e-002 1.69988479e-002 7.87074864e-002 -1.33902496e-002
      -2.60057729e-002 -4.11099531e-002 2.47414503e-003 3.88488024e-002
      -1.62632316e-002 6.90084184e-003 3.36615415e-003 5.57553247e-002
      -1.77815184e-002 -2.90937535e-002 -2.81057768e-002 9.89963394e-003
      3.54510136e-002 -4.29343320e-002 -3.41080837e-002 -2.92294729e-003
      8.78106654e-002 -1.91701145e-003 -2.38264315e-002 -4.12404053e-002
      3.94121334e-002 4.57594804e-002 -3.48601537e-003 -3.11878081e-002
      -5.57920663e-003 2.53729615e-002 -4.27087769e-002 -3.29697803e-002
      -3.59282307e-002 4.01964709e-002 4.17627469e-002 -2.43799249e-003
      -1.03512667e-002 1.22350929e-002 5.03010750e-002 -3.58814234e-003
      6.97252154e-003 -1.47279818e-002 6.69079497e-002 4.67667095e-002
      -3.15165035e-002 -3.59372981e-002 1.63935299e-003 3.83540802e-002
      -4.40032035e-002 -4.07887958e-002 -5.09487577e-002 5.87808639e-002
      5.61659969e-002 -1.49444223e-003 -3.03469766e-002 5.13803260e-003
      2.96963360e-002 2.50367187e-002 3.03781610e-002 -1.76232196e-002
      7.75952712e-002 3.38849425e-002 -7.59422453e-003 -1.30498707e-002
      8.91431887e-003 7.00663179e-002 2.18862481e-002 3.16810459e-002
      -1.52261378e-002 -3.53582622e-003 2.33154669e-002 1.02350796e-002
      1.85356650e-003 1.13618188e-002 5.52603453e-002 5.20026265e-003
      1.84109285e-002 -8.97565391e-003 -7.02448795e-003 2.18449906e-002
      -2.21945364e-002 -3.87544557e-002 2.63005146e-003 6.07693568e-002
      5.72472699e-002 5.77166229e-002 -9.73623991e-003 3.98546904e-002
      1.16105061e-002 -8.85334099e-004 -2.37315539e-002 2.14698073e-003
      5.57585470e-002 1.86785329e-002 4.06464636e-002 6.13056263e-003
      4.22153138e-002 1.87818352e-002 2.08188277e-002 1.89528018e-002
      -5.97093953e-003 4.50227484e-002 -4.65005077e-002 -1.25974370e-002
      -4.45808955e-002 -7.07278447e-003 9.18670278e-003 3.88103127e-002
      5.12352511e-002 1.42472908e-002 9.13558453e-002 -2.14033294e-002
      -4.03433517e-002 -6.79844543e-002 -6.48600934e-003 5.32188490e-002
      1.92313809e-002 7.94124696e-003 -4.52577742e-003 2.33962089e-002
      -3.97808701e-002 -1.09929806e-002 -1.64655931e-002 3.66320461e-002
      3.50583009e-002 1.27640152e-002 5.43259308e-002 2.02650689e-002
      6.31015077e-002 -3.27374320e-003 -2.94402204e-002 -3.13724764e-002
      3.36949527e-002 2.98605803e-002 2.71805245e-002 3.06558628e-002
      6.79194322e-003 4.01127823e-002 -4.29385379e-002 -3.76137011e-002
      -3.99696492e-002 -1.46938511e-003 6.18813895e-002 4.94905710e-002
      6.27109632e-002 1.85919665e-002 3.04737333e-002 -3.50245833e-002
      1.60017237e-002 2.14906931e-002 3.05561591e-002 6.87468797e-004
      -5.65533759e-003 5.56208529e-002 7.18432991e-003 1.92472022e-002
      -2.09986288e-002 -4.53047417e-002 -7.70538440e-003 1.94220617e-002
      4.71797958e-002 3.67030352e-002 4.01875004e-002 3.16693261e-003
      2.47246586e-002 -8.43190774e-003 -2.14405998e-004 2.12885998e-002
      5.61821014e-002 2.77455058e-002 4.78544608e-002 2.61866283e-002
      -4.66411747e-003 -1.43176019e-002 -5.44913746e-002
      -2.87792739e-002 -1.99062992e-002 -1.00485864e-003 4.45817411e-002
      7.24097639e-002 5.98182641e-002 5.82827963e-002 4.17508781e-002
      -1.98200569e-002 -1.60849523e-002 -1.24756694e-002 1.75522659e-002
      3.01752817e-002 3.36148888e-002 1.27599854e-002 -3.18278223e-002
      -1.32854301e-002 -4.39322218e-002 -2.97102872e-002 4.09288565e-003
      2.66404692e-002 5.19520268e-002 7.52681866e-002 5.60516939e-002
      2.93810591e-002 4.13718782e-002 -3.03481091e-002 3.36882332e-003
      4.01007431e-003 3.95968109e-002 2.47892458e-002 2.10485607e-002
      8.85414798e-003 1.87902693e-002 2.35074032e-002 -5.74302636e-002
      -3.85241769e-002 -2.60072164e-002 -4.32472257e-003 6.67216405e-002
      4.64280359e-002 2.29386333e-002 3.71847823e-002 3.40187773e-002
      -2.40077972e-002 -9.96824354e-003 -1.10711632e-002 4.16580997e-002
      2.44117919e-002 1.82573386e-002 1.75253339e-002 1.65965334e-002
      1.26886684e-002 -5.14679328e-002 -1.16753848e-002 -4.33902116e-003
      6.98105246e-003 7.03941658e-002 7.19037279e-002 5.68471514e-002
      3.52971591e-002 2.21607331e-002 -4.51377258e-002 9.15691815e-003
      1.95500776e-002 4.82621826e-002 5.35683371e-002 6.39810041e-003
      -4.58555622e-003 -1.76592860e-002 -1.72957196e-003
      -4.24279571e-002 -1.65447723e-002 -8.59026797e-003 1.08734053e-002
      8.14807564e-002 2.10402440e-002 1.04088271e-002 -2.71197762e-002
      2.23427713e-002 1.09500587e-002 1.39206098e-002 3.08057666e-002
      5.90055622e-002 4.36296351e-002 1.10587813e-002 2.41617616e-002
      5.81017230e-003 -2.41721161e-002 -6.23509772e-002 -6.80808257e-003
      1.00313863e-002 2.61589643e-002 5.83331920e-002 2.67490987e-002
      2.33763717e-002 2.73868572e-002 2.72853710e-002 -2.09241342e-002
      2.09163874e-002 1.82000250e-002 6.95800260e-002 4.62405905e-002
      1.52893579e-002 -7.72756245e-003 -6.89921826e-002 -1.08359279e-002
      -1.57587845e-002 -1.61156319e-002 -1.98166128e-002 3.79682332e-002
      6.75014332e-002 4.32215258e-002 7.25069875e-003 -1.00238174e-002
      4.44444977e-002 -3.50761949e-003 4.00229730e-003 -1.37429740e-002
      5.31292818e-002 5.14369160e-002 3.30081349e-003 -1.51262097e-002
      -3.27381007e-002 -1.13594690e-002 -3.34445313e-002
      -2.39120591e-002 -1.14570204e-002 5.35056405e-002 6.87731355e-002
      1.84960887e-002 -1.25113279e-002 9.16548818e-003 4.60219942e-002
      1.23547735e-002 -1.25081344e-002 1.55751379e-002 7.13194609e-002
      -1.48468185e-002 -1.05594499e-002 7.54653290e-003 4.33751717e-002
      4.95953336e-002 7.85486586e-003 -1.17284330e-002 -1.57780237e-002
      -2.87929550e-002 3.34366225e-002 -5.58220409e-003 -3.05964760e-002
      7.46226776e-003 1.71265937e-002 9.89359990e-003 6.08235318e-003
      7.46942218e-003 2.50127055e-002 1.72933601e-002 -7.04544503e-003
      2.24651094e-003 4.59316522e-002 5.72488755e-002 1.00508332e-002
      -2.23611086e-003 -3.15577127e-002 6.08750014e-003 1.36350617e-002
      -5.43606933e-003 -4.36470471e-002 1.03206560e-003 1.19644236e-002
      -1.04366825e-003 -1.53274722e-002 8.56635161e-003 2.50301827e-002
      1.09887039e-002 9.61338010e-005 -1.58577319e-002 -1.11358631e-002
      2.25285422e-002 1.24005489e-002 1.52367493e-002 1.35165837e-003
      -1.30617269e-003 -3.12995166e-003 -1.93130109e-003 1.69941373e-002
      1.94757886e-003 2.68857181e-002 1.28335645e-002 4.23987117e-003
      -9.53781698e-003 -8.37042648e-003 1.18442299e-002 1.92824677e-002
      -3.50085087e-002 -2.11321516e-003 1.79790445e-002 -3.32733314e-003
      5.59668895e-003 9.26754787e-004 -1.63495808e-003 1.69001594e-002
      2.31913459e-002 -1.66624028e-003 -3.14736855e-003 1.33837247e-002
      -1.66230276e-002 1.31240413e-002 -1.05312513e-002 -2.14759149e-002
      -2.25080200e-003 1.29985176e-002 3.60081857e-003 1.76509526e-002
      2.49876641e-002 9.81811341e-003 -1.07350340e-002 -1.19955204e-002
      -1.35906190e-002 2.50688638e-003 1.57014020e-002 1.64736900e-002
      3.26771513e-002 3.18017118e-002 6.21185731e-003 2.76285899e-003
      -3.00877541e-002 4.79643047e-003 2.65788902e-002 1.32787656e-002
      8.58074054e-003 1.87872238e-002 5.44110662e-004 -4.72086808e-003
      1.54482592e-002 2.57037953e-003 -6.57537533e-003 6.43660640e-003
      1.57240443e-002 2.90368367e-002 4.89344709e-002 2.64325198e-002
      -6.43229950e-003 1.51469670e-002 -1.67148933e-002 1.64095405e-002
      2.57092435e-003 -1.18455123e-002 2.02395748e-002 2.23340895e-002
      3.68000828e-002 1.46300327e-002 3.01270583e-003 -1.96362790e-002
      1.87198315e-002 2.71867812e-002 -8.85346532e-003 1.83417480e-002
      -2.96293888e-002 -2.11941637e-003 5.95818227e-003 6.24721451e-003
      -1.36100138e-002 3.02948360e-003 -6.41683117e-003 1.98397804e-002
      3.61742824e-002 3.03972624e-002 3.57973762e-002 -4.48628981e-003
      -9.91073065e-003 -2.01658998e-002 3.34460139e-002 2.62355823e-002
      5.29104238e-003 4.07971032e-002 -1.33508211e-002 2.01180186e-002
      -5.03580496e-002 -3.57247107e-002 -2.10462864e-002 2.35533454e-002
      1.82735454e-002 -1.14811454e-002 2.07501762e-002 -2.51790825e-002
      9.74566024e-003 8.52692965e-003 6.62575522e-003 -9.99384373e-003
      2.13481188e-002 6.89930608e-003 -1.82238184e-002 -1.16373198e-002
      -3.31517123e-002 -3.06929946e-002 -6.65565953e-003 6.12235721e-003
      3.31273023e-003 3.29537131e-002 2.42852755e-002 -1.75482465e-003
      3.70185114e-002 2.17060819e-002 1.44931301e-002 -3.68603282e-002
      -1.22333365e-002 -2.05435865e-002 1.71690993e-002 4.23866622e-002
      5.47161791e-003 -1.35581149e-002 -2.42920909e-002 -3.47845368e-002
      -7.41924867e-002 -2.51745023e-002 -1.36881294e-002 1.96543150e-002
      -4.31342050e-003 -1.80034433e-002 -1.73038114e-002 8.47401097e-004
      -1.81221077e-003 -9.03612375e-003 8.78218096e-003 1.12735722e-002
      3.42871472e-002 -7.52681866e-003 -5.17420955e-002 -2.90715881e-002
      -9.08174552e-003 2.56407950e-002 -1.67245362e-002 -1.46744940e-002
      5.37464302e-003 3.49998102e-002 3.27952094e-002 -6.94570877e-003
      -1.63199641e-002 -4.41864860e-004 6.41796796e-004 -5.59608378e-002
      -1.84286516e-002 5.65004908e-003 4.75328229e-002 2.49326788e-002
      -3.00247744e-002 -2.04797201e-002 -1.11748073e-002 1.48307150e-002
      -7.75954733e-003 -1.62936263e-002 -2.51444965e-003 4.17752117e-002
      -1.68525882e-003 -4.79742922e-002 -1.45829497e-002
      -8.18099082e-003 2.67929062e-002 -4.61765053e-003 -1.84247587e-002
      3.71608697e-003 2.06459081e-003 1.37448348e-002 -4.63424996e-002
      -3.07620782e-002 -2.03679278e-002 7.78569058e-002 6.00170868e-004
      -3.25807817e-002 -3.95410098e-002 2.08811183e-002 1.18006859e-002
      -2.42173187e-002 1.40469000e-002 -1.11315474e-002 2.35245060e-002
      1.20413052e-002 5.29284915e-003 9.29982308e-003 2.61296909e-002
      2.37131212e-002 6.33385126e-003 2.02095024e-002 1.11034783e-002
      1.00211158e-001 1.85784567e-002 -1.43692242e-002 -2.45890524e-002
      2.48482153e-002 4.79357354e-002 -1.52360583e-002 -3.00926398e-002
      -5.93901146e-003 2.06435975e-002 -3.99879552e-002 -3.70223522e-002
      -4.87781055e-002 2.92280689e-002 5.14777116e-002 1.38385203e-002
      -1.65427979e-002 2.14606319e-002 5.08114733e-002 2.16351612e-003
      1.29182881e-003 -4.67638336e-002 2.32446771e-002 6.59046769e-002
      2.45509874e-002 7.39012100e-003 -9.09528881e-003 2.84079332e-002
      -5.30084036e-002 -3.09570711e-002 -5.50781973e-002 3.33552286e-002
      5.56147657e-002 1.92558002e-002 1.01694614e-002 2.86198389e-002
      6.09494597e-002 -2.60430295e-003 -5.32786420e-004 -4.32384312e-002
      3.29090767e-002 -7.11380597e-003 -2.78981496e-002 -3.10325474e-002
      5.82173187e-003 7.82975629e-002 3.82994153e-002 1.96814518e-002
      -5.32138273e-002 -1.86457566e-003 3.48175439e-004 -3.46427523e-002
      -2.52232160e-002 -6.00272650e-003 6.36202171e-002 3.16588767e-002
      -1.79222561e-002 -1.11259921e-002 3.72502767e-002 1.61167979e-003
      -2.43241675e-002 -1.66475549e-002 -7.57100340e-003 9.45360288e-002
      4.06927951e-002 4.71727503e-003 -4.25802432e-002 7.54825864e-003
      5.16444929e-002 -9.77698341e-003 -4.60405089e-003 2.86470540e-003
      5.97181991e-002 4.45634238e-002 -2.56440660e-004 -1.11329807e-002
      5.79338484e-002 2.66518537e-002 -9.42167267e-003 -1.20945890e-002
      -1.55586358e-002 3.05487514e-002 -1.77667663e-002 -2.42336225e-002
      -1.04339542e-002 4.89312187e-002 6.89457217e-003 -1.09421881e-002
      3.94119397e-002 4.27733874e-003 3.23587656e-002 1.36144329e-002
      -3.32962349e-002 -4.50972542e-002 3.06978095e-002 5.49647659e-002
      3.47668678e-003 1.04979670e-003 2.22035963e-003 3.85546125e-002
      1.19256712e-002 -2.04578899e-002 -2.19973233e-002 2.23670844e-002
      3.08129210e-002 4.89767045e-002 5.00128306e-002 3.80984508e-002
      5.03027290e-002 2.29492020e-002 -9.10561439e-003 -3.62598039e-002
      7.75160361e-003 -1.95307657e-002 -2.05233265e-002 2.32420228e-002
      -4.37064795e-003 3.79761308e-003 2.39702724e-002 -2.50613224e-002
      -3.81251350e-002 -1.97721855e-003 6.02142513e-003 6.91827107e-003
      1.34340404e-002 -1.21854385e-002 2.64288615e-002 2.78275609e-002
      1.90590899e-002 -5.63650625e-003 2.35654563e-002 1.77197680e-002
      3.89365405e-002 1.83364656e-002 3.34533222e-004 2.23266631e-002
      2.93933675e-002 -1.46925393e-002 -3.53864096e-002 1.49181252e-003
      4.45750058e-002 2.47761421e-002 1.93149131e-002 -1.11886756e-002
      5.28651364e-002 5.97408302e-002 4.96445261e-002 -2.03620846e-004
      1.85497552e-002 -1.35616371e-002 -7.14923814e-003 -1.51553135e-002
      -6.30092472e-002 -4.03646613e-003 -1.46669857e-002
      -1.10481144e-003 -1.48554984e-002 -3.61586432e-003
      -1.35487355e-002 2.43472829e-002 1.86400171e-002 -1.62503484e-003
      4.41061817e-002 -1.18540637e-002 1.40298726e-002 3.44278896e-003
      1.11716753e-002 2.43443251e-002 1.23302648e-002 -4.31880821e-003
      -2.83896215e-002 2.25816872e-002 1.33741507e-002 2.59469636e-002
      6.29497319e-003 -3.26400576e-003 4.15064767e-002 4.23512906e-002
      4.29519974e-002 2.14635357e-002 6.37541339e-002 4.26794924e-002
      4.78896014e-002 3.87648381e-002 2.38847677e-002 -7.92046078e-003
      7.41709396e-003 -1.04335799e-004 -6.44594105e-003 1.45766316e-002
      -3.48219536e-002 -1.07863862e-002 -2.23556980e-002
      -3.77510078e-002 4.03345823e-002 4.13746871e-002 1.41542051e-002
      3.58184194e-003 3.01865246e-002 -1.67251285e-002 1.82905719e-002
      -1.72916334e-002 -8.75756305e-005 1.82301365e-002 1.56297814e-002
      1.68454014e-002 -6.58763479e-003 3.91577855e-002 1.91083364e-002
      3.58197652e-002 2.24222708e-002 -7.23063946e-004 5.85401542e-002
      6.87842444e-002 5.20366244e-002 2.72281617e-002 3.10937837e-002
      3.35961245e-002 5.22023141e-002 2.42242273e-002 3.35843191e-002
      1.82151571e-002 2.85153650e-003 -2.76461542e-002 -5.48537727e-003
      3.95329436e-003 -1.88126247e-002 -4.26487112e-003 -3.04450020e-002
      -2.99681183e-002 2.50115469e-002 1.87298935e-002 -9.12341569e-003
      2.64564008e-002 6.50456101e-002 7.28806807e-003 1.56268198e-002
      -1.66178960e-002 -2.10728613e-003 3.77918072e-002 3.43672335e-002
      -1.06996763e-002 -1.28170764e-002 1.11316442e-002 9.12644144e-004
      6.67083403e-003 -1.54485414e-002 2.01675240e-002 4.21655886e-002
      3.86125334e-002 1.09223220e-002 2.19383147e-002 5.13512865e-002
      1.43312113e-002 2.72654812e-003 5.65374503e-003 5.13061285e-002
      1.06174070e-002 -8.56268406e-003 -2.82146856e-002 -1.77698340e-002
      1.69208553e-002 -3.22691649e-002 -2.88427081e-002 -2.03481428e-002
      -1.40579222e-002 3.68428268e-002 -1.54427597e-002 -2.33311951e-002
      -1.30965272e-002 7.28468746e-002 2.74610296e-002 -1.51028242e-002
      -3.05403169e-004 2.71676127e-002 1.37675721e-002 -2.25808495e-003
      -2.95510478e-002 -1.97001863e-002 3.09219640e-002 4.78966394e-003
      -1.85235497e-002 -1.32201416e-002 2.54592579e-002 5.08883186e-002
      9.73871036e-004 -2.01717019e-002 -3.49602289e-003 6.00295179e-002
      5.17146699e-002 5.59896557e-003 5.29514719e-003 6.77724406e-002
      1.35072190e-002 -8.10849667e-003 -1.15710674e-002 2.50316337e-002
      2.12492738e-002 1.60411634e-002 1.56223942e-002 -1.74935888e-002
      9.26667266e-003 2.80883852e-002 -1.86848873e-003 -4.70728539e-002
      9.30736959e-003 -2.78722048e-002 -2.56301891e-002 -2.24541426e-002
      -6.57281745e-003 3.41772623e-002 3.72092761e-002 -1.17273992e-002
      -5.81121026e-003 2.05958933e-002 4.28484604e-002 1.98509898e-002
      1.14519172e-003 1.37607576e-002 2.62331665e-002 5.88563755e-002
      1.23747345e-002 9.25358292e-003 2.61539780e-002 1.60152875e-002
      -1.30699631e-002 -1.87222082e-002 -1.31052230e-002 3.51545513e-002
      4.38222326e-002 8.68611690e-003 -6.11988362e-003 2.04364732e-002
      -1.11006908e-002 -2.27633677e-002 8.92415061e-004 -1.93837807e-002
      2.08664238e-002 6.68787658e-002 1.59996806e-003 1.42498296e-002
      -1.30265532e-002 -1.70487054e-002 -4.08820398e-002 8.78023636e-003
      -7.35272886e-003 7.57164322e-003 6.02812655e-002 2.00753119e-002
      1.42022334e-002 1.24613689e-002 5.88924438e-003 -2.00730041e-002
      2.74393242e-002 -1.24883549e-002 3.75211760e-002 4.78095487e-002
      4.12883749e-003 6.39872765e-003 9.68031026e-003 9.08186194e-003
      -6.44037267e-003 -1.41532335e-003 -2.28317007e-002 3.15218829e-002
      6.95668533e-002 8.93330202e-003 1.53633961e-002 2.01277751e-002
      -2.36163475e-002 -2.57248785e-002 1.71249546e-003 -2.88791452e-002
      1.48038361e-002 3.34976576e-002 1.58724897e-002 2.70116441e-002
      5.41665964e-002 1.06948027e-002 -1.76533293e-002 1.32053532e-002
      -2.85835247e-002 -1.10931032e-004 6.26610070e-002 3.76395788e-003
      1.09267058e-002 2.97395065e-002 -1.51599268e-003 -1.40976589e-002
      -9.21764690e-003 -3.53432857e-002 3.18705477e-002 3.01776268e-002
      9.70144477e-003 5.64429387e-002 5.22381887e-002 1.65480413e-002
      -2.12210361e-002 -1.31777022e-003 -3.61389406e-002
      -1.34861441e-002 3.21491100e-002 3.20975110e-002 3.47612016e-002
      2.73123775e-002 2.47927476e-002 -5.59084676e-003 1.29021928e-002
      -3.87007184e-002 1.06639732e-002 2.83188075e-002 6.35546353e-003
      4.14938964e-002 9.08349920e-003 -4.06176085e-003 -4.33879048e-002
      -4.51041050e-002 -3.63553613e-002 1.74084865e-002 2.09969860e-002
      1.59306638e-002 3.79268415e-002 3.36167440e-002 4.31423262e-002
      1.15482071e-002 -1.70135102e-003 -2.93660462e-002 -4.96502733e-003
      1.09867873e-002 3.50806117e-002 3.50434668e-002 6.09421544e-003
      -6.58090273e-003 -2.31424440e-002 -4.05768529e-002
      -2.75011119e-002 1.11704683e-002 2.79859342e-002 7.24943262e-003
      2.75397263e-002 2.90472563e-002 1.33064471e-003 -3.03698443e-002
      -2.67780833e-002 -3.68535556e-002 1.66786723e-002 6.08836301e-002
      1.47586279e-002 2.37623341e-002 -9.37095936e-003 -3.07497177e-002
      -5.90532608e-002 -3.58351544e-002 -5.17917834e-002 2.86141802e-002
      2.13379059e-002 3.43034826e-002 1.85515173e-002 1.16604222e-002
      5.01439646e-002 4.15501418e-003 -3.69563922e-002 -4.86441143e-002
      -1.51304454e-002 1.95887238e-002 1.59757826e-002 1.73239540e-002
      -9.50357784e-003 3.99988927e-002 -9.50518996e-003 -5.02674766e-002
      -5.22675961e-002 -9.14106984e-003 3.39137390e-002 -1.67248603e-002
      -1.22848786e-002 -1.18487738e-002 4.07833606e-003 -3.77123877e-002
      -4.33308631e-002 -4.19223160e-002 1.49820419e-002 2.53899507e-002
      -3.39889191e-002 -1.86863225e-002 -1.76110100e-002 4.42407513e-003
      -1.53658306e-002 -2.77460255e-002 -4.67336131e-003 2.01060735e-002
      2.37746704e-002 -1.74551886e-002 1.65443420e-002 1.72121283e-002
      2.21113954e-002 -2.31085233e-002 -6.37797415e-002 -8.24924484e-002
      -1.86999924e-002 4.52430137e-002 6.34407904e-003 -2.65030880e-002
      3.09406337e-003 2.90617049e-002 -2.21768282e-002 -4.83748317e-002
      -4.20328192e-002 4.33536246e-004 7.70405168e-003 -2.86767017e-002
      -1.97122861e-002 -3.13962102e-002 4.42987215e-003 -2.34756302e-002
      -1.54076247e-002 9.05760936e-003 2.15360187e-002 -3.17155267e-003
      -1.54145518e-002 1.69953424e-002 -1.87830057e-003 5.87711073e-002
      1.06059555e-002 -2.15445599e-003 -1.80036258e-002 5.44834742e-003
      2.56843921e-002 -9.58701875e-003 -2.18774360e-002 -2.10910104e-002
      5.52660972e-003 -1.17411660e-002 -7.33918371e-003 -1.16356639e-002
      4.99510281e-002 1.92606126e-006 -2.12720353e-002 -4.25379636e-004
      1.34880356e-002 6.74627349e-002 4.96807508e-003 -3.82448221e-003
      -1.22699616e-002 2.14802455e-002 2.56196018e-002 -9.00316704e-003
      -8.87464825e-003 -1.83964204e-002 4.31154715e-003 -2.62601674e-002
      -1.74129643e-002 -3.99892852e-002 2.02363059e-002 3.89547832e-002
      2.15763133e-002 -3.82975559e-003 -7.21881725e-003 2.23277602e-002
      -4.44579637e-003 -1.71965603e-002 -2.45401468e-002 3.15022767e-002
      2.83846799e-002 4.21789568e-003 4.31052363e-003 3.76917887e-003
      3.55269127e-002 -2.45648660e-002 -3.24949697e-002 -2.14426480e-002
      3.21391076e-002 4.04405743e-002 2.00312734e-002 2.20227055e-003
      1.91997122e-002 5.39138988e-002 1.62997600e-002 -3.51976277e-003
      1.35985985e-002 5.73022664e-002 1.60469394e-002 -1.27758905e-002
      -5.98067185e-004 -4.08022255e-002 4.15161997e-002 1.77909788e-002
      -1.28563559e-002 -2.96610817e-002 7.72247510e-003 4.98228446e-002
      1.92225929e-002 -8.19210894e-003 -3.28362025e-002 1.28467735e-002
      2.24303920e-002 -1.46411548e-004 -1.28720114e-002 4.42002565e-002
      4.03435044e-002 -2.62339637e-002 -8.91183317e-003 -9.77329537e-003
      5.97096719e-002 2.41380241e-002 -3.77466041e-003 -6.74791727e-003
      4.98789549e-002 5.89788444e-002 4.79832757e-003 -5.80775971e-003
      8.24977458e-003 3.55300196e-002 2.18791943e-002 1.42792612e-002
      -6.98718475e-003 7.41298720e-002 4.65923399e-002 2.11759042e-002
      -1.35714025e-003 -1.28458906e-002 1.28500182e-002 9.16107930e-003
      2.06300206e-002 -1.94726139e-002 2.17777304e-002 1.71986129e-002
      2.90410556e-002 1.87513055e-004 -1.39891065e-003 1.81075800e-002
      7.91232660e-003 2.59122141e-002 -1.89567963e-003 3.66521403e-002
      6.50311634e-002 1.29150264e-002 4.95963125e-003 1.19414190e-002
      3.57894860e-002 1.10264290e-002 2.53012385e-002 1.27180656e-002
      8.19459036e-002 3.78776304e-002 1.21441474e-002 -2.57431492e-002
      -6.60590036e-003 3.95483263e-002 2.08485853e-002 2.95547564e-002
      3.81540917e-002 7.40040988e-002 -8.35349318e-003 1.18292142e-002
      -2.50908416e-002 -4.24477011e-002 2.42056455e-002 2.78610177e-002
      3.01250536e-003 9.38597415e-003 2.30831597e-002 1.93102807e-002
      -3.79617629e-003 1.13105979e-002 -8.90984200e-003 4.98181768e-002
      4.00189236e-002 2.08215918e-002 2.95662470e-002 3.57926190e-002
      1.48575520e-002 -1.84132680e-002 -5.36978915e-002 -5.85820526e-002
      3.03805061e-002 6.55353889e-002 1.01765804e-002 3.39870937e-002
      5.25337271e-002 2.36956850e-002 -1.50400959e-002 -1.90503281e-002
      -1.06625317e-003 7.10717589e-002 9.76722017e-002 4.88576964e-002
      5.49943931e-002 4.35434505e-002 -2.12675501e-002 -3.55931371e-002
      -9.21186619e-003 -3.88335921e-002 1.28791425e-002 -2.07042433e-002
      -1.06984796e-002 5.26293786e-003 8.53397138e-003 2.90382132e-002
      2.51827738e-003 1.06902011e-002 7.90754391e-004 5.06032333e-002
      1.66633520e-002 1.71680134e-002 3.26212086e-002 5.38389124e-002
      3.52377095e-003 -6.00955188e-002 -3.64426337e-002 -4.68306094e-002
      1.72394048e-002 1.59889851e-002 2.40097102e-002 3.89538668e-002
      -2.00924536e-004 4.15118858e-002 2.87653357e-002 -4.41066595e-003
      -4.97998903e-003 5.79954870e-002 2.09138319e-002 4.31769155e-002
      4.68084775e-002 4.21642140e-002 4.05062502e-003 -8.54581036e-003
      -1.67995635e-002 -3.64802741e-002 8.27189069e-003 6.26670849e-003
      6.24833861e-003 8.02626368e-003 4.56119841e-003 5.49579263e-002
      1.73980631e-002 -1.73216406e-002 -1.53495278e-002 2.30772048e-002
      3.04384325e-002 3.58124636e-002 5.03369905e-002 4.44644876e-002
      3.68459299e-002 1.12284366e-002 -5.60908541e-002 -4.08210754e-002
      3.30866612e-002 7.70297414e-003 1.19842328e-002 1.99860539e-002
      5.32420874e-002 7.72742853e-002 2.45934911e-002 -6.83318218e-003
      -2.21147332e-002 3.08877211e-002 2.22722478e-002 4.66750823e-002
      7.94948637e-002 9.58057269e-002 2.37806514e-002 -1.28834946e-002
      -2.51367688e-002 -2.99630947e-002 -2.09728982e-002
      -9.02151782e-003 -1.79212540e-002 8.44063610e-003 2.52659656e-002
      4.99328822e-002 9.16095451e-003 2.83210282e-003 3.66424839e-003
      4.31639608e-003 -1.07851182e-003 -7.66041828e-003 1.22345509e-002
      6.49919510e-002 6.02136329e-002 -1.93512142e-002 -1.73187405e-002
      -1.05501991e-002 -7.68685713e-003 -2.04184260e-002 2.03054659e-002
      4.84243184e-002 6.04433827e-002 6.53268024e-002 1.70912389e-002
      1.41830230e-002 2.27797646e-002 7.42992666e-003 3.38349268e-002
      2.62727886e-002 5.50381131e-002 9.04660448e-002 4.35120463e-002
      -1.77487358e-002 -3.55304033e-002 -4.55298834e-002
      -2.83771940e-002 -2.00189799e-002 -1.73546951e-002 3.06418771e-003
      3.39871012e-002 6.83968365e-002 1.08718285e-002 -1.41167436e-002
      -1.27732717e-002 -5.32310922e-003 2.37902142e-002 1.06163453e-002
      3.49502712e-002 9.52806994e-002 7.05597326e-002 -8.02771002e-003
      -3.33636850e-002 -4.41514142e-002 -2.56905984e-002 7.35377567e-003
      -3.86703270e-003 2.71180496e-002 7.72970319e-002 6.53987229e-002
      1.10236844e-002 1.14680186e-003 -9.49459709e-003 -6.69883681e-004
      4.35939729e-002 1.68918148e-002 6.69712201e-002 1.16514549e-001
      2.14799270e-002 -1.76709350e-002 -3.30154970e-003 2.66024098e-002
      3.65175344e-002 -7.35359266e-003 -1.86100565e-002 -1.73538439e-002
      1.87015161e-003 3.04131042e-002 2.12483834e-002 1.81643143e-002
      -9.49111953e-003 -2.86347279e-003 -2.74087712e-002
      -3.27374935e-002 -4.57060225e-002 9.27885994e-003 1.10723516e-002
      -3.06360517e-002 -6.36743894e-003 1.99191608e-002 3.35944854e-002
      1.51797542e-002 -5.33691375e-003 -2.79693771e-003 1.63093414e-002
      1.53120225e-002 1.92422029e-002 2.69247442e-002 1.99630321e-003
      3.49486321e-002 1.76119432e-002 -2.03258935e-002 -1.58188567e-002
      1.38044991e-002 3.49203646e-002 9.92151722e-003 1.96105819e-002
      5.85121987e-003 2.19264906e-002 -2.87327208e-002 -1.81476437e-002
      -1.43294260e-002 1.38964187e-002 1.57188270e-002 -1.23193385e-002
      3.49409995e-003 1.85377412e-002 1.72193088e-002 -2.71267500e-002
      -3.91784906e-002 -2.21065395e-002 1.29695926e-002 1.72574241e-002
      1.84088368e-002 4.62592579e-002 4.23919819e-002 8.33122283e-002
      1.95464250e-002 -2.79028025e-002 -1.75982490e-002 2.82001309e-002
      -1.85525380e-002 1.79659668e-002 3.13726254e-002 5.09824306e-002
      6.82894364e-002 1.05074199e-003 -4.74361032e-002 -2.58311350e-002
      1.80859677e-002 -8.59339663e-004 -1.96125731e-002 1.91177670e-002
      1.58608798e-002 1.79426428e-002 -1.50753837e-002 -9.91879310e-003
      -3.66636030e-002 -1.23223616e-002 -2.02869456e-002
      -1.27656227e-002 4.24550585e-002 2.34365240e-002 2.31365040e-002
      -3.08000520e-002 -2.52062753e-002 -4.79928628e-002
      -5.64335063e-002 3.79805942e-003 2.53622457e-002 1.32039534e-002
      4.19225991e-002 7.28499293e-002 2.48706695e-002 6.81565981e-003
      -2.52413005e-002 2.26161140e-003 7.58489175e-003 3.28150392e-002
      2.86627151e-002 1.46655925e-002 6.35438412e-002 4.97908564e-003
      -3.78333940e-003 -4.15215343e-002 -1.87644549e-002
      -1.05406856e-002 2.22798623e-003 8.68980121e-003 1.56727582e-002
      1.99484937e-002 -5.43047674e-003 -2.38779504e-002 -3.60618643e-002
      -4.02416959e-002 7.47885276e-003 2.78059058e-002 1.99084207e-002
      -1.92812104e-002 -9.99944098e-003 -3.54231372e-002
      -5.14220670e-002 -4.89996038e-002 -4.16459143e-002 4.89134621e-003
      1.63039006e-002 2.10270360e-002 2.25003436e-002 6.79229870e-002
      1.20647263e-003 -1.41473459e-002 -2.28579901e-002 6.29375223e-003
      8.66779778e-003 2.44102105e-002 3.17764543e-002 3.02526578e-002
      4.61069159e-002 -8.53439700e-003 -2.56984755e-002 -4.69306111e-002
      -2.02104654e-002 1.93102304e-002 2.61621345e-002 2.29908060e-002
      -1.07185021e-002 1.60947125e-002 -1.25748310e-002 -3.95097360e-002
      -6.60165325e-002 -4.02720869e-002 2.14665737e-002 4.82257688e-003
      3.31246899e-003 -5.58485417e-003 2.07021795e-002 -3.77090015e-002
      -4.79547679e-002 -7.14286715e-002 -3.89344655e-002 2.65620500e-002
      2.95206029e-002 3.21749002e-002 2.97508389e-002 5.68140522e-002
      -1.02601591e-002 -2.76141632e-002 -3.67632620e-002 2.40729991e-002
      3.58113684e-002 3.30646448e-002 3.37350592e-002 2.10458636e-002
      2.79539041e-002 -5.21108322e-002 -2.80540101e-002 -3.27246077e-002
      3.20474729e-002 2.58149989e-002 -1.57056958e-003 3.17369215e-003
      1.59442909e-002 1.60443094e-002 -4.78777178e-002 -6.29507229e-002
      -9.05942544e-002 -5.33408746e-002 4.71303277e-002 1.54742263e-002
      -3.06291645e-003 1.12354802e-002 2.40174849e-002 -1.19938366e-002
      -5.07557802e-002 -7.27690235e-002 -1.95035059e-002 6.64262846e-002
      9.30504687e-003 -5.94532175e-004 2.75714695e-002 2.75737885e-002
      -3.94037403e-002 -3.80893797e-002 -2.55093686e-002 2.07533371e-002
      1.03962585e-001 4.60344814e-002 6.00562850e-003 4.12225425e-002
      6.03378005e-002 -1.69518369e-003 -6.09818399e-002 -6.57943040e-002
      1.52328648e-002 4.12986726e-002 -1.46528874e-002 -3.88795771e-002
      -1.30806398e-002 2.58993432e-002 1.08408369e-002 -2.88305562e-002
      -7.72720948e-002 2.19097715e-002 3.17849368e-002 -2.05704030e-002
      -4.17301431e-002 3.69230960e-003 7.22848922e-002 -8.81040189e-003
      -3.26614976e-002 -4.77644913e-002 1.40978182e-002 8.17254633e-002
      1.53505122e-002 -3.10051776e-002 2.57746968e-002 5.64050339e-002
      2.14677653e-004 -5.77949136e-002 -8.75114873e-002 3.90185677e-002
      5.88950925e-002 4.18350566e-003 -8.40620324e-003 2.37887818e-002
      1.03342913e-001 -6.38369797e-003 -5.15608825e-002 -6.50106892e-002
      5.31671243e-003 6.34353310e-002 -1.21220117e-002 -2.45838426e-002
      -1.83791183e-002 2.67783292e-002 -4.99026738e-002 -6.03525303e-002
      -2.64029521e-002 5.36833592e-002 5.28675541e-002 -2.67651323e-002
      -9.57527105e-003 1.19548840e-002 5.87243475e-002 -1.38038341e-002
      -2.52666045e-002 1.87450869e-003 4.83393744e-002 8.90111253e-002
      8.64749309e-003 -3.31069902e-002 -2.34344378e-002 5.05056717e-002
      -3.44551653e-002 -5.79166040e-002 -3.80655602e-002 5.18451855e-002
      5.20137772e-002 -1.57805979e-002 -2.05104873e-002 2.50517111e-003
      4.93510142e-002 -5.51558798e-003 -2.70250570e-002 -1.26223918e-002
      4.96570505e-002 1.10767633e-002 -5.56481443e-002 -3.73550244e-002
      -2.04778165e-002 6.09869957e-002 2.24083085e-002 4.22765501e-003
      -1.63395628e-002 3.98842618e-002 5.93461171e-002 -4.23277579e-002
      -4.98738624e-002 -1.30210035e-002 5.18698804e-002 2.70021930e-002
      -1.32953655e-002 -2.41623502e-002 5.84294386e-002 6.27077790e-003
      -4.16819677e-002 -3.38597149e-002 2.99279876e-002 6.72860295e-002
      1.77701078e-002 3.66908102e-003 5.95812220e-004 3.02191507e-002
      3.00757270e-002 -4.76432666e-002 -4.98257354e-002 1.13931941e-002
      4.39433940e-002 2.23674085e-002 1.63576882e-002 -1.20224841e-002
      1.66472048e-002 6.52719289e-002 -1.57582238e-002 -2.40694359e-002
      -1.12467017e-002 3.26607935e-002 -1.11221792e-002 -1.34493243e-002
      -1.09578948e-002 4.23052497e-002 4.99850661e-002 -1.97241791e-002
      -3.57047394e-002 -9.01421066e-003 3.70770730e-002 -3.10973567e-003
      -4.98518115e-003 7.62749114e-004 4.04951088e-002 6.04827590e-002
      -3.13430391e-002 -2.41079126e-002 -8.96845479e-004 1.46643138e-002
      -2.07457654e-002 9.70352441e-003 9.39418003e-003 4.61291857e-002
      5.51745184e-002 -3.45807299e-002 -2.71855555e-002 -1.26894712e-002
      2.34868005e-002 -1.29560232e-002 1.88618824e-002 1.85423847e-002
      5.82402758e-002 2.34618168e-002 -6.11703731e-002 -4.75951955e-002
      -5.39089479e-002 2.81725042e-002 2.78094746e-002 -1.44632370e-003
      -2.27615447e-003 1.05529493e-002 2.24120300e-002 -5.04559427e-002
      -5.06088808e-002 -3.97589691e-002 2.81215794e-002 5.83206974e-002
      2.28881966e-002 2.90299170e-002 5.86266629e-002 2.73451284e-002
      -6.95045218e-002 -4.55351621e-002 -1.92101058e-002 2.31368728e-002
      1.26918145e-002 1.11678699e-002 1.62999667e-002 3.64563465e-002
      3.64896506e-002 -3.99168469e-002 -6.55806884e-002 -2.45536864e-002
      3.69830132e-002 4.43368778e-002 1.85934715e-002 3.11210826e-002
      7.36975223e-002 1.97317135e-002 -7.17462301e-002 -7.56516829e-002
      -7.20660463e-002 -9.91989742e-004 1.03113952e-003 1.65832080e-002
      1.72973052e-002 2.06012465e-002 6.17975928e-002 -2.94220261e-003
      -5.02916723e-002 -1.92597006e-002 6.53768629e-002 2.15614699e-002
      4.03567515e-002 1.70795918e-002 4.38818671e-002 4.40647788e-002
      -5.26711121e-002 -7.42837340e-002 -4.58139591e-002
      -3.01941112e-003 -5.12346951e-003 -1.45534202e-002
      -3.61809088e-003 2.37348396e-002 8.22354853e-002 1.61614865e-002
      -1.19123701e-002 6.65814243e-003 4.51192036e-002 4.15537208e-002
      4.31442186e-002 -2.81814748e-004 5.34248278e-002 3.24785113e-002
      -3.08830012e-002 -7.64392316e-002 -3.16356421e-002 3.76914702e-002
      -7.88940641e-004 9.23545938e-003 -1.85114220e-002 1.83682851e-002
      6.72233179e-002 -3.42270080e-003 -1.86918546e-002 -2.25175805e-002
      6.15489949e-003 2.82942411e-002 3.77072841e-002 4.98018675e-002
      5.51285557e-002 3.61967087e-002 -2.54093041e-003 -4.13377434e-002
      -2.25073118e-002 2.57338006e-002 2.69000093e-003 1.26558235e-002
      -2.86522117e-002 1.07803987e-002 3.82821821e-002 2.68768836e-002
      1.54882213e-002 -7.05429167e-003 1.79198477e-002 1.78692490e-002
      4.60335426e-002 3.62040810e-002 4.00243104e-002 3.51585597e-002
      -3.14732864e-002 -3.82244550e-002 -3.70090269e-002
      -3.80337052e-002 -2.95677762e-002 1.68703087e-002 4.35019881e-002
      1.64716188e-002 3.89071368e-002 -2.80855913e-002 -4.12411690e-002
      -9.17346310e-003 -7.84405228e-003 1.22103579e-002 1.72428433e-002
      5.84040731e-002 7.10763186e-002 2.87297890e-002 -1.70528609e-002
      -2.90241893e-002 -4.17255424e-002 -2.17372533e-002
      -1.60140526e-002 1.44722862e-002 2.30479334e-002 1.56690478e-002
      4.84881625e-002 -1.76205970e-002 -4.55471277e-002 1.14714599e-003
      3.10725477e-002 2.20658388e-002 2.65593827e-002 3.70525531e-002
      5.14071994e-002 5.24067804e-002 -3.24046612e-002 -4.91134077e-002
      -5.60558662e-002 -3.81572880e-002 -1.94695722e-002
      -3.25487554e-003 2.61142924e-002 6.90122992e-002 4.65276390e-002
      -1.99123789e-002 3.70825524e-003 -1.95437055e-002 1.49541134e-002
      3.86453047e-002 2.68789437e-002 3.59694660e-002 6.98631182e-002
      4.77634817e-002 -7.55386194e-003 -6.01175576e-002 -4.09030952e-002
      -1.47494376e-002 -5.35782054e-003 1.03078550e-002 -6.80463761e-003
      4.43215556e-002 4.50151600e-002 9.77578200e-003 -1.81677099e-002
      -2.61758832e-004 3.04415394e-002 3.87426838e-002 3.00724991e-002
      1.72360111e-002 5.96016087e-002 -1.80326141e-002 -2.74115670e-002
      -1.85731798e-002 2.73318719e-002 3.84609513e-002 1.16535332e-002
      -2.93618590e-002 -2.42517656e-003 -2.05996148e-002
      -1.98398381e-002 -1.18555911e-002 6.05354970e-003 2.09449381e-002
      4.23321687e-002 7.14860251e-003 -3.74729373e-002 -1.86636616e-002
      -3.10541503e-003 2.75311582e-002 2.43764110e-002 5.40349670e-002
      7.11677894e-002 1.50202364e-002 9.88166127e-003 -4.86492068e-002
      -4.81984615e-002 8.14633444e-003 2.66112257e-002 3.30667980e-002
      1.03397844e-002 5.35742231e-002 3.35850716e-002 2.17808019e-002
      -2.95321774e-002 1.41910687e-002 3.86637039e-002 -1.32259075e-002
      4.99586016e-003 2.91520115e-002 2.68810727e-002 6.26491830e-002
      -8.55812430e-003 -3.05606257e-002 -3.10739037e-002
      -5.94530348e-003 -2.05445029e-002 -5.20857889e-003 1.00390660e-002
      3.06803845e-002 7.37509504e-002 1.48394005e-002 -4.34253700e-002
      -3.84376682e-002 -4.40192856e-002 1.80913322e-002 1.70566514e-002
      -3.59298103e-003 3.36668380e-002 3.25982347e-002 5.68000879e-003
      -1.08991032e-002 1.93096288e-002 4.73569632e-002 3.54652144e-002
      9.27965436e-003 1.69847754e-003 3.93567421e-002 3.91908139e-002
      4.14671712e-002 -1.79020409e-002 -2.76772138e-002 -9.54027753e-003
      7.90552143e-003 -1.53610399e-002 -1.07194511e-002 2.93251630e-002
      7.08425120e-002 2.43188068e-002 -1.74570475e-002 -6.62425905e-002
      -4.15489115e-002 1.93127990e-002 -5.32560097e-003 -1.08614108e-002
      2.58833971e-002 6.14880063e-002 1.41815735e-005 -5.14507182e-002
      -9.38908085e-002 -3.47915143e-002 4.58465703e-002 -1.89131114e-003
      7.10166804e-003 4.75777462e-002 6.16947822e-002 3.86097953e-002
      1.41105643e-002 -5.14862835e-002 2.52213124e-002 3.79016437e-002
      9.13082715e-003 3.57336253e-002 5.17222658e-002 6.16968870e-002
      2.11671158e-003 -2.89822407e-002 -6.10657148e-002 2.61397455e-002
      1.70951039e-002 -7.29501061e-003 7.74818938e-004 4.74015111e-003
      4.94815409e-002 -3.93131608e-003 -4.68212925e-002 -8.02912638e-002
      -2.95831244e-002 9.29129403e-003 -2.45617628e-002 1.38665214e-002
      2.70279888e-002 4.57564294e-002 -5.83276851e-003 -5.16169071e-002
      -8.75864550e-002 -4.06960025e-002 5.12579046e-002 9.76879429e-003
      2.73876693e-002 3.14575136e-002 5.82399294e-002 -9.37350269e-004
      -3.20526920e-002 -4.23930548e-002 2.86779124e-002 2.92043835e-002
      1.44659439e-002 3.02026439e-002 1.75089315e-002 7.53630549e-002
      4.85567376e-002 -2.94689909e-002 -3.81130055e-002 -2.25024540e-002
      -6.92264584e-004 -1.18404124e-002 4.20380849e-003 2.88229659e-002
      4.56258729e-002 -2.16596923e-003 -5.65369800e-002 -4.71838340e-002
      -2.42657531e-002 6.49188273e-003 3.05231917e-003 -2.34701578e-002
      2.26433035e-002 2.25619460e-005 -5.76948375e-002 -4.64538820e-002
      -5.95679171e-002 -3.57577926e-003 3.77968848e-002 1.15779946e-002
      1.66594721e-002 2.95222048e-002 8.96635279e-002 5.42731695e-002
      -2.56340280e-002 -4.34820428e-002 -9.18420684e-003 3.67766805e-002
      1.21154897e-002 1.50650536e-004 4.41808216e-002 5.68215251e-002
      -1.07775815e-002 -3.00782286e-002 -6.02566116e-002
      -8.66117887e-003 1.91804692e-002 -8.58597271e-003 -7.56058982e-003
      2.33754665e-002 4.90714516e-003 -5.41834868e-002 -3.60554494e-002
      -4.40249331e-002 -7.11008860e-003 2.74869893e-002 2.57089734e-002
      2.98591796e-002 3.65417637e-002 3.82977948e-002 -3.10183447e-002
      -6.59847707e-002 -8.41444433e-002 -1.70654207e-002 3.33186686e-002
      2.12160265e-003 2.55479328e-002 2.38763876e-002 5.64722456e-002
      1.90995578e-002 7.71535467e-003 -7.12110028e-002 -9.16318037e-003
      2.97218040e-002 3.48130167e-002 5.88741526e-002 2.79298536e-002
      5.29270247e-002 5.72190015e-003 -2.54056007e-002 -8.19491744e-002
      5.58668328e-003 3.04806624e-002 1.63796730e-002 1.24883065e-002
      1.84079055e-002 4.34596352e-002 -1.70157682e-002 -4.05008495e-002
      -7.83964545e-002 1.55748869e-003 1.94708146e-002 -1.32343788e-002
      1.37390764e-002 1.69013515e-002 6.69743940e-002 -2.59995703e-002
      -5.56221008e-002 -7.61968568e-002 -6.47197710e-003 3.24184112e-002
      -3.20674176e-003 3.23814079e-002 2.21957825e-002 6.88431337e-002
      1.18943332e-002 -2.75647361e-002 -8.69359598e-002 9.57711320e-003
      4.27220762e-002 -2.37253588e-002 5.76771721e-002 9.86437574e-002
      1.34425700e-001 8.01648106e-003 -6.64086789e-002 -9.50873122e-002
      -3.56549993e-002 4.99337055e-002 -1.85741242e-002 -1.64936949e-002
      -1.39059220e-002 3.20808701e-002 4.60011000e-003 -3.39870416e-002
      -3.85966860e-002 2.66673956e-002 2.63818260e-002 -3.48769724e-002
      -3.09132077e-002 1.10136950e-003 2.89215669e-002 6.28166506e-003
      -1.56664662e-002 -2.27798875e-002 3.25658880e-002 3.08367778e-002
      -2.57440098e-002 3.96013223e-002 7.55700469e-002 9.20239836e-002
      7.85933225e-004 -4.21534628e-002 -7.95503557e-002 -4.20053340e-002
      -1.72416270e-002 -2.07888130e-002 3.09042986e-002 4.45472077e-002
      1.01963274e-001 2.85464805e-002 6.31739339e-003 -7.18233734e-002
      -3.09420377e-002 2.60036136e-003 -3.78520377e-002 -6.75916020e-003
      3.74534167e-002 5.80360219e-002 2.00670976e-002 -1.74838840e-003
      -1.60685051e-002 1.29821189e-002 3.17814574e-002 -2.70486325e-002
      -1.01659913e-002 2.20140871e-002 7.50424415e-002 3.79863717e-002
      5.11954585e-003 -3.17777433e-002 2.33387738e-003 -3.34795043e-002
      -3.87535654e-002 2.85312198e-002 5.32953553e-002 1.14917397e-001
      4.80726436e-002 8.66831839e-003 -7.84040019e-002 -3.92418280e-002
      -8.47619027e-003 -2.40201745e-002 1.12832105e-002 3.29462439e-002
      1.14144199e-001 7.68319070e-002 4.90310090e-003 -1.08449556e-001
      -2.37981360e-002 4.77618836e-002 -1.80091299e-002 -2.55393814e-002
      1.58664872e-004 4.67081517e-002 4.85404767e-003 -1.26718618e-002
      -3.39999907e-002 1.53126884e-002 1.10887848e-002 -3.34265046e-002
      -2.28727907e-002 2.72483621e-002 5.33593297e-002 1.94086786e-002
      1.32695632e-002 -5.51662408e-003 4.20294749e-003 2.17119996e-002
      -3.80114354e-002 -1.27193276e-002 3.61354984e-002 1.12773702e-001
      5.56492358e-002 -2.65600700e-002 -9.52323452e-002 -1.49924401e-002
      4.59490530e-003 -3.05160489e-002 1.63160712e-002 9.29064304e-002
      1.15495995e-001 4.05214056e-002 -2.07238570e-002 -6.17103353e-002
      -3.12055293e-002 -7.08274404e-003 -6.48052841e-002
      -3.56284678e-002 1.40702249e-002 4.26193476e-002 1.48197012e-002
      1.46441078e-002 -1.12422584e-002 -3.68615752e-003 3.69959138e-002
      -2.37974152e-002 -3.91504802e-002 1.47196501e-002 5.09348325e-002
      2.93212123e-002 3.20420391e-003 -1.17941974e-002 3.17396633e-002
      -6.65778574e-003 -7.08811283e-002 -1.25431921e-002 5.18309735e-002
      9.06064287e-002 1.61925182e-002 -1.68388579e-002 -5.43443970e-002
      -1.97743177e-002 -1.86184165e-003 -7.18692541e-002
      -4.04789820e-002 5.13629206e-002 1.08779840e-001 3.36908326e-002
      1.25729116e-002 -3.91486697e-002 6.50040293e-003 4.17323411e-002
      -6.35601133e-002 -7.06590712e-002 -2.73184944e-002 5.63014206e-003
      -5.91435842e-003 -1.77367609e-002 -2.93691792e-002 7.31204450e-003
      3.91272977e-002 -1.11635150e-002 -8.21348745e-003 2.12398134e-002
      7.17025176e-002 4.16349769e-002 3.26600485e-002 -2.18285876e-003
      1.89288370e-002 -1.11687705e-002 -1.16637245e-001 -7.76736066e-002
      8.92884843e-003 5.35017140e-002 1.87775455e-002 1.93167035e-003
      -5.75891212e-002 -9.06719547e-003 1.47082862e-002 -6.17014132e-002
      -3.57485376e-002 4.32824157e-002 1.10867910e-001 6.02925010e-002
      2.86002755e-002 -2.65481826e-002 2.31342055e-002 -6.78265886e-003
      -5.23811989e-002 -3.91295739e-002 -1.99530367e-002 4.04010601e-002
      1.55816358e-002 2.34391410e-002 -1.97771899e-002 3.74039332e-003
      2.70250905e-002 -1.61740463e-002 6.20991399e-004 1.31240226e-002
      5.83608784e-002 3.16607840e-002 3.99065390e-002 1.52150290e-002
      2.28835382e-002 -4.50128578e-002 -9.82349217e-002 -5.20590469e-002
      1.46005442e-002 8.51925686e-002 4.69642915e-002 -5.21767652e-003
      -2.24868972e-002 -1.59917735e-002 1.26185957e-002 -2.47513168e-002
      -4.24422370e-003 3.07420623e-002 9.91078913e-002 5.54875210e-002
      1.16553213e-002 -6.47074915e-003 4.99410853e-002 -1.11952389e-003
      -4.68951948e-002 -2.46346109e-002 -3.36419977e-002
      -9.86676477e-003 -6.28041429e-003 -7.01147504e-003 3.94932646e-003
      2.02394076e-004 -6.14420837e-003 -3.04012094e-002 -1.65997148e-002
      2.68600397e-002 9.49719846e-002 6.53607398e-002 2.47542560e-002
      2.90763588e-003 1.25732198e-002 -2.34947670e-002 -4.95612547e-002
      -2.01437064e-002 -1.27562620e-002 4.06621248e-002 -5.47349965e-003
      -2.84390785e-002 -8.49533733e-003 2.90896650e-002 -2.40241941e-002
      -3.05201430e-002 6.42674603e-003 5.05000986e-002 9.29751694e-002
      7.06639811e-002 1.71530489e-002 2.63627097e-002 3.65289934e-002
      1.63319875e-002 -4.69569415e-002 -6.46311417e-002 -3.23768817e-002
      3.19656469e-002 2.63250843e-002 6.86104782e-003 -3.12660262e-002
      1.77486818e-002 5.16852550e-002 -2.78923735e-002 -3.38480845e-002
      -6.76030666e-003 3.61819007e-002 2.72543691e-002 1.84621364e-002
      -2.58642994e-003 6.27323017e-002 -1.07892081e-002 -5.38929962e-002
      -4.63942178e-002 6.02138834e-003 4.36667167e-002 4.74670716e-002
      5.70123259e-004 -2.51228083e-002 1.26967430e-002 3.59102078e-002
      -5.05962111e-002 -4.72910516e-002 7.09357578e-003 5.90228923e-002
      8.22106525e-002 4.09404114e-002 -3.49209481e-003 6.47803321e-002</_></support_vectors>
  <decision_functions>
    <_>
      <sv_count>1</sv_count>
      <rho>3.4940105222471263e+000</rho>
      <alpha>
        1.</alpha></_></decision_functions></opencv_ml_svm>
</opencv_storage>
